digraph Tree {
node [shape=box, style="filled, rounded", color="black", fontname=helvetica] ;
edge [fontname=helvetica] ;
0 [label=<agent_age &le; -0.34<br/>gini = 0.5<br/>samples = 8935<br/>value = [4467.5, 4467.5]<br/>class = cancelled>, fillcolor="#e5813900"] ;
1 [label=<agent_active_portfolio &le; 0.045<br/>gini = 0.47<br/>samples = 3061<br/>value = [2278.892, 1387.308]<br/>class = cancelled>, fillcolor="#e5813964"] ;
0 -> 1 [labeldistance=2.5, labelangle=45, headlabel="True"] ;
3 [label=<agent_active_portfolio &le; -0.204<br/>gini = 0.486<br/>samples = 2643<br/>value = [1743.415, 1240.774]<br/>class = cancelled>, fillcolor="#e581394a"] ;
1 -> 3 ;
7 [label=<customer_age &le; -1.395<br/>gini = 0.473<br/>samples = 2133<br/>value = [1562.847, 971.532]<br/>class = cancelled>, fillcolor="#e5813960"] ;
3 -> 7 ;
9 [label=<gini = 0.368<br/>samples = 297<br/>value = [345.57, 110.794]<br/>class = cancelled>, fillcolor="#e58139ad"] ;
7 -> 9 ;
10 [label=<contact_channel_broker &le; 0.3<br/>gini = 0.485<br/>samples = 1836<br/>value = [1217.277, 860.738]<br/>class = cancelled>, fillcolor="#e581394b"] ;
7 -> 10 ;
15 [label=<gini = 0.469<br/>samples = 1265<br/>value = [952.652, 571.244]<br/>class = cancelled>, fillcolor="#e5813966"] ;
10 -> 15 ;
16 [label=<customer_age &le; -0.798<br/>gini = 0.499<br/>samples = 571<br/>value = [264.625, 289.494]<br/>class = active>, fillcolor="#399de516"] ;
10 -> 16 ;
17 [label=<gini = 0.486<br/>samples = 306<br/>value = [202.361, 143.556]<br/>class = cancelled>, fillcolor="#e581394a"] ;
16 -> 17 ;
18 [label=<gini = 0.419<br/>samples = 265<br/>value = [62.265, 145.938]<br/>class = active>, fillcolor="#399de592"] ;
16 -> 18 ;
8 [label=<agent_inactive_portfolio &le; -0.071<br/>gini = 0.481<br/>samples = 510<br/>value = [180.568, 269.241]<br/>class = active>, fillcolor="#399de554"] ;
3 -> 8 ;
37 [label=<gini = 0.493<br/>samples = 427<br/>value = [174.341, 220.992]<br/>class = active>, fillcolor="#399de536"] ;
8 -> 37 ;
38 [label=<gini = 0.202<br/>samples = 83<br/>value = [6.226, 48.249]<br/>class = active>, fillcolor="#399de5de"] ;
8 -> 38 ;
4 [label=<agent_inactive_portfolio &le; -0.193<br/>gini = 0.337<br/>samples = 418<br/>value = [535.477, 146.534]<br/>class = cancelled>, fillcolor="#e58139b9"] ;
1 -> 4 ;
23 [label=<gini = 0.099<br/>samples = 76<br/>value = [183.681, 10.126]<br/>class = cancelled>, fillcolor="#e58139f1"] ;
4 -> 23 ;
24 [label=<agent_active_portfolio &le; 0.524<br/>gini = 0.403<br/>samples = 342<br/>value = [351.796, 136.408]<br/>class = cancelled>, fillcolor="#e581399c"] ;
4 -> 24 ;
25 [label=<gini = 0.442<br/>samples = 93<br/>value = [24.906, 50.632]<br/>class = active>, fillcolor="#399de582"] ;
24 -> 25 ;
26 [label=<gini = 0.329<br/>samples = 249<br/>value = [326.89, 85.776]<br/>class = cancelled>, fillcolor="#e58139bc"] ;
24 -> 26 ;
2 [label=<agent_tenure &le; -0.242<br/>gini = 0.486<br/>samples = 5874<br/>value = [2188.608, 3080.192]<br/>class = active>, fillcolor="#399de54a"] ;
0 -> 2 [labeldistance=2.5, labelangle=-45, headlabel="False"] ;
5 [label=<agent_active_portfolio &le; -0.099<br/>gini = 0.499<br/>samples = 2510<br/>value = [1173.692, 1270.557]<br/>class = active>, fillcolor="#399de513"] ;
2 -> 5 ;
13 [label=<customer_income &le; -0.036<br/>gini = 0.5<br/>samples = 2324<br/>value = [1142.559, 1165.72]<br/>class = active>, fillcolor="#399de505"] ;
5 -> 13 ;
19 [label=<gini = 0.468<br/>samples = 312<br/>value = [236.606, 140.577]<br/>class = cancelled>, fillcolor="#e5813967"] ;
13 -> 19 ;
20 [label=<rider_premium &le; 1.164<br/>gini = 0.498<br/>samples = 2012<br/>value = [905.953, 1025.142]<br/>class = active>, fillcolor="#399de51e"] ;
13 -> 20 ;
21 [label=<gini = 0.493<br/>samples = 1810<br/>value = [740.951, 936.388]<br/>class = active>, fillcolor="#399de535"] ;
20 -> 21 ;
22 [label=<agent_tenure &le; -0.908<br/>gini = 0.455<br/>samples = 202<br/>value = [165.002, 88.754]<br/>class = cancelled>, fillcolor="#e5813976"] ;
20 -> 22 ;
27 [label=<gini = 0.249<br/>samples = 53<br/>value = [87.171, 14.892]<br/>class = cancelled>, fillcolor="#e58139d3"] ;
22 -> 27 ;
28 [label=<customer_age &le; -0.2<br/>gini = 0.5<br/>samples = 149<br/>value = [77.831, 73.863]<br/>class = cancelled>, fillcolor="#e581390d"] ;
22 -> 28 ;
35 [label=<gini = 0.364<br/>samples = 37<br/>value = [43.585, 13.7]<br/>class = cancelled>, fillcolor="#e58139af"] ;
28 -> 35 ;
36 [label=<gini = 0.462<br/>samples = 112<br/>value = [34.246, 60.162]<br/>class = active>, fillcolor="#399de56e"] ;
28 -> 36 ;
14 [label=<gini = 0.353<br/>samples = 186<br/>value = [31.132, 104.837]<br/>class = active>, fillcolor="#399de5b3"] ;
5 -> 14 ;
6 [label=<product_code_BP_06342177 &le; 1.612<br/>gini = 0.46<br/>samples = 3364<br/>value = [1014.916, 1809.635]<br/>class = active>, fillcolor="#399de570"] ;
2 -> 6 ;
11 [label=<product_code_BP_03765630 &le; 3.405<br/>gini = 0.469<br/>samples = 3065<br/>value = [983.784, 1637.488]<br/>class = active>, fillcolor="#399de566"] ;
6 -> 11 ;
29 [label=<sum_assured &le; -0.869<br/>gini = 0.464<br/>samples = 3001<br/>value = [930.859, 1609.491]<br/>class = active>, fillcolor="#399de56c"] ;
11 -> 29 ;
31 [label=<gini = 0.5<br/>samples = 285<br/>value = [146.322, 141.769]<br/>class = cancelled>, fillcolor="#e5813908"] ;
29 -> 31 ;
32 [label=<rider_premium &le; 0.405<br/>gini = 0.454<br/>samples = 2716<br/>value = [784.537, 1467.723]<br/>class = active>, fillcolor="#399de577"] ;
29 -> 32 ;
33 [label=<gini = 0.434<br/>samples = 2106<br/>value = [538.591, 1151.424]<br/>class = active>, fillcolor="#399de588"] ;
32 -> 33 ;
34 [label=<gini = 0.492<br/>samples = 610<br/>value = [245.946, 316.299]<br/>class = active>, fillcolor="#399de539"] ;
32 -> 34 ;
30 [label=<gini = 0.453<br/>samples = 64<br/>value = [52.925, 27.996]<br/>class = cancelled>, fillcolor="#e5813978"] ;
11 -> 30 ;
12 [label=<gini = 0.259<br/>samples = 299<br/>value = [31.132, 172.148]<br/>class = active>, fillcolor="#399de5d1"] ;
6 -> 12 ;
}