digraph Tree {
node [shape=box, style="filled, rounded", color="black", fontname=helvetica] ;
edge [fontname=helvetica] ;
0 [label="customer_additional_products <= 1.106\nentropy = 0.999\nsamples = 978\nvalue = [796, 748]\nclass = 0", fillcolor="#e581390f"] ;
1 [label="customer_income <= 933.333\nentropy = 0.728\nsamples = 352\nvalue = [443, 113]\nclass = 0", fillcolor="#e58139be"] ;
0 -> 1 [labeldistance=2.5, labelangle=45, headlabel="True"] ;
2 [label="customer_income <= 275.0\nentropy = 0.982\nsamples = 35\nvalue = [33, 24]\nclass = 0", fillcolor="#e5813946"] ;
1 -> 2 ;
3 [label="entropy = 0.779\nsamples = 25\nvalue = [30, 9]\nclass = 0", fillcolor="#e58139b3"] ;
2 -> 3 ;
4 [label="entropy = 0.65\nsamples = 10\nvalue = [3, 15]\nclass = 1", fillcolor="#399de5cc"] ;
2 -> 4 ;
5 [label="customer_social_group <= 1322583.25\nentropy = 0.676\nsamples = 317\nvalue = [410, 89]\nclass = 0", fillcolor="#e58139c8"] ;
1 -> 5 ;
6 [label="entropy = 0.79\nsamples = 150\nvalue = [187, 58]\nclass = 0", fillcolor="#e58139b0"] ;
5 -> 6 ;
7 [label="entropy = 0.535\nsamples = 167\nvalue = [223, 31]\nclass = 0", fillcolor="#e58139dc"] ;
5 -> 7 ;
8 [label="policy_premium <= 147500.0\nentropy = 0.94\nsamples = 626\nvalue = [353, 635]\nclass = 1", fillcolor="#399de571"] ;
0 -> 8 [labeldistance=2.5, labelangle=-45, headlabel="False"] ;
9 [label="customer_income_median <= 1603.571\nentropy = 0.912\nsamples = 572\nvalue = [293, 603]\nclass = 1", fillcolor="#399de583"] ;
8 -> 9 ;
10 [label="entropy = 0.988\nsamples = 126\nvalue = [115, 89]\nclass = 0", fillcolor="#e581393a"] ;
9 -> 10 ;
11 [label="entropy = 0.823\nsamples = 446\nvalue = [178, 514]\nclass = 1", fillcolor="#399de5a7"] ;
9 -> 11 ;
12 [label="customer_income <= 1270.833\nentropy = 0.932\nsamples = 54\nvalue = [60, 32]\nclass = 0", fillcolor="#e5813977"] ;
8 -> 12 ;
13 [label="entropy = 0.992\nsamples = 31\nvalue = [22, 27]\nclass = 1", fillcolor="#399de52f"] ;
12 -> 13 ;
14 [label="entropy = 0.519\nsamples = 23\nvalue = [38, 5]\nclass = 0", fillcolor="#e58139dd"] ;
12 -> 14 ;
}